#include "alg_mlp_networks.h"

/* define the BP networks*/
#define NETWORKS_INPUT_SIZE (20) /* input data feature dimension */
#define NETWORKS_LINNER1_SIZE (64) /* hidden layer neuron number */
#define NETWORKS_BATCHNORMAL1D_SIZE (20)
#define NETWORKS_LINNER2_SIZE (20)
#define NETWORKS_OUTPUT_SIZE (20) /* class number */
#define NETWORKS_POOL_SIZE (4)
#define NETWORKS_CLASS_NUM (5)
#define EPS 0.00001
#define FLT_MIN 1.175494351e-38F

#define NET_NORMAL 0
#define NET_ERR_GENERIC -1

/* weight: reshape the original [row_num, column_num] matrix into
 * [row_num*column_num, 1] along columns */
typedef struct NetwoksLayer {
    uint16_t row_num;
    uint16_t column_num;
    const float *weight;
    const float *bias;
} NetwoksLayer;

typedef struct BpNetworks {
    NetwoksLayer linner_layer1;
    NetwoksLayer linner_layer2;

} BpNetworks;

static BpNetworks bp_networks;

//* changed weight
const float linner_layer1_weight[NETWORKS_INPUT_SIZE * NETWORKS_LINNER1_SIZE] = {
    -0.4825854629403204,   0.07449666251875195,    -0.5777879502629854,
    0.5784153720937505,    -0.1537514694900409,    0.15311214468768589,
    0.02377098597881867,   1.038303212253491,      -0.0731959926199297,
    1.228498662677599,     -0.05576929055667945,   -0.305622268895184,
    -0.3830046052096684,   -0.36129645948174033,   0.17093496880112766,
    -0.8660672945330196,   -0.6024525429059828,    0.4301694494612756,
    -0.6844211738893194,   -0.56745313326157,      -0.001125190051249332,
    0.4546547455989288,    0.3127684685377651,     -0.02078444990033989,
    0.13536513065831904,   -0.15010528390871405,   0.17119712606708257,
    -1.375404194307566,    0.3469116173411126,     -0.43653362703266996,
    0.38739208539778086,   0.5527105880721837,     0.23783317377934912,
    0.3915913233869221,    -0.7520509628093229,    -0.9334742608557521,
    -0.22252163977728265,  0.8242041158573248,     0.4595236093826225,
    1.31123368387263,      0.0539379184771505,     -0.5668012152359413,
    0.1355399451389175,    -0.4712707928292526,    0.0760856529498568,
    -0.03220133873977195,  0.050518765322386444,   0.08073613731946623,
    -0.8017087867383883,   0.13835164944352324,    0.3093929219728724,
    0.9134931311417854,    -0.2623860990354794,    -0.2479356809350053,
    0.10843327500002373,   0.43313478877234574,    0.6747156607257877,
    -0.6734865812909169,   -1.074380738894638,     -2.1396773091755312,
    0.2367705216055548,    0.42814183670703054,    -0.25673339446233423,
    0.020013194603703557,  0.21299194427478402,    0.05723790658694485,
    -0.12773067665943497,  0.1382732923662813,     0.08623685988856593,
    0.540946814514876,     -1.0183777658461977,    0.3505557423321303,
    -0.11597227550380039,  0.27601808558790397,    1.0774999530386402,
    0.2901368204401242,    0.496303640650812,      -1.0483722682530938,
    -0.12733237600653463,  -0.2842119270690846,    -0.1153615223847084,
    0.49307136407215585,   -0.05922270231527715,   -0.7877739579040403,
    0.2370631761563679,    -0.09131437048378221,   -0.04024211621301939,
    -0.24065296272498302,  0.3718677613068018,     -0.06143021148699788,
    -0.7730654726625975,   0.1308703284069661,     0.7524881379742612,
    0.2732697295755422,    1.3439220482002188,     0.4655710238849155,
    0.11217185176565311,   0.5717618105937022,     -1.2043085702191354,
    -0.23918600621465272,  0.976545247956154,      0.4425097577333699,
    0.11836165441075398,   0.4344364897883854,     -0.2927460122293981,
    0.2879882217880521,    -0.02309249886424426,   0.6931949819440746,
    0.7916147529226607,    0.17035127574632633,    0.010680258157619874,
    0.2230822197656777,    -0.29119530270932764,   0.7108110546493458,
    1.0592182642045094,    -1.0194030552051714,    0.3206863178123718,
    -0.26468974077716656,  0.24683304382334006,    0.47839778990857984,
    0.12243498866923752,   0.18888544654326142,    -0.48626662316064634,
    0.18249941623682203,   -0.8418496283856901,    -0.05797491398428992,
    -0.16805224752358802,  -0.0897574808251635,    0.8724047741531014,
    -0.7250435738172248,   -0.8116816367175163,    0.7749803409745996,
    0.2830157268759388,    0.28545617313304605,    1.2817713763753626,
    -0.35776264143721087,  0.6298840701765974,     -0.47563028244376443,
    -0.2685025372019547,   0.5355455712889706,     1.1672756697172335,
    0.07031673029478473,   0.14642746201722776,    -0.0019121787125217402,
    0.2362664009279456,    0.4518583445031964,     0.7567431701445894,
    0.0756751521546644,    -0.2395971318129977,    -0.048530238447055285,
    -1.4018977488209412,   -0.22685938772562336,   -0.32806165532365517,
    -0.435657618602039,    0.7036638687844531,     0.5528170875982258,
    0.03546454259341251,   0.019642055401103104,   0.22274699335486722,
    0.08665477931750096,   -0.6939026795166761,    -0.8710594705693161,
    -1.047964231077751,    -0.7557320029600543,    -0.5096658649266582,
    -0.15537835405396075,  -0.4664300205312896,    -0.3120292358505254,
    -0.7931674816960744,   -0.6870957997163819,    0.2648713148021517,
    -1.0125774711992748,   -0.8819745704512618,    -0.9557755677172581,
    -1.0228572463820396,   -0.5745762379110674,    -0.044442007002216136,
    -0.3844663766433827,   -0.3037715787268277,    -0.4481207180348795,
    0.42893741882855063,   0.39041687731082203,    0.8416845552720846,
    0.5119704540589062,    0.8846373922710146,     0.5212081694575961,
    0.5387291915987266,    -0.7299151670075426,    -0.695564950071202,
    0.05503392480043506,   0.7181101225809967,     0.7104527787142251,
    0.6536530984211177,    -0.6619882682745053,    -0.8820685865487684,
    -0.39368360249864737,  -0.36137526406323117,   0.3917651756122001,
    0.2287669505030765,    -0.49866104452087684,   0.20783857657220625,
    0.2944860146657609,    -0.6766828862063736,    0.48165492257927356,
    -0.1335996488508345,   0.7904225073232157,     -0.6347733995882489,
    0.8348345590374625,    0.01822558907171811,    -0.01473940132780644,
    -0.22062213819440105,  -0.3518597060908435,    -0.8566007663951215,
    0.1549904860763538,    -0.28649746507444135,   -0.40067174484929763,
    -2.0009482069880047,   -0.6095706706218078,    0.37108911817894386,
    0.2209574709116207,    0.10297540562017735,    0.3497021044732467,
    0.5396206256201417,    -0.2730077875384289,    0.20838360056668356,
    0.0900576460643795,    -0.11905269555844382,   0.10591620110618542,
    0.285712465320556,     -0.5767213187880689,    0.5781989936461581,
    0.3689469227535446,    -0.3746505895589847,    1.1287191844407123,
    -0.5677999529481642,   -1.5304188157480882,    -0.7582312249601129,
    -0.08471990663827243,  0.3074092660444047,     0.5405142379500172,
    0.3391949168778747,    0.7465565877228032,     -0.2842786637085555,
    -0.8810600358991284,   0.5265082945322124,     -0.7751612926230583,
    -0.9972069945591768,   -0.5262982161464763,    0.32877729965531627,
    -0.22914671094583056,  -0.005307809421061332,  -1.0793304988371513,
    -0.28785690906500494,  0.44935417344978573,    0.9855739965243964,
    -0.4714668975148163,   -0.7257022032879867,    -0.3268897151596324,
    -1.1304373909751586,   -0.34620213800201555,   -0.000652199400211063,
    0.04199000294143465,   0.5355114136747398,     0.30112540585339204,
    0.295122221898014,     -0.10301116602109175,   0.49767840291246973,
    0.2475036733299216,    0.5763415303247219,     -0.4843760004492321,
    -0.7581876926254892,   -0.18902661963188466,   -1.0379306484855984,
    1.0778658136632167,    0.3468604214362934,     -0.2537378802548385,
    0.23848386254551523,   -0.608191903752704,     -0.23412074820783582,
    0.7519475270219218,    -0.3876226077776978,    -0.3620562539637158,
    -1.137264982762995,    -0.28794636953762415,   -0.3587831881140888,
    0.1530432525691575,    -0.879066215348374,     -0.5479872209159725,
    -0.41705190657341745,  -0.6956795465122019,    -0.3388062640857585,
    -0.6116262979026336,   -0.5134917082629136,    -0.5161475210941469,
    -0.18580606609074618,  -0.8371597267654443,    -1.276338073965002,
    -0.7891391512081417,   -1.2207643915872417,    -1.4446158489304308,
    -0.9885501100550554,   -0.1376466337018033,    -0.6926640049557612,
    0.04326239782954471,   -0.2702493788600939,    -0.7887322638605822,
    -0.13127844409738576,  -0.056110801343925557,  0.6185217925010501,
    0.8067692067446803,    -0.8511517468039649,    0.2528694114131729,
    0.22189472636203036,   -0.447534160363845,     0.16715577855495098,
    0.217002355899137,     0.28939168772326246,    0.4074384013492397,
    0.24486821295276293,   0.6859584406181886,     -0.02253184108722451,
    0.26974791580377117,   -0.4360298603291051,    0.42667023198729437,
    0.41944434848965206,   0.4088695432865696,     0.4400370682578009,
    -1.1642291089442762,   0.3484995400005312,     -0.7223364610190408,
    -0.40527105738395375,  0.18302413479433816,    1.2897126927818967,
    -0.6473560843616805,   -0.7092915883849712,    0.10411037375210527,
    0.5195219343817716,    -0.0716882757314716,    0.5503463999999563,
    0.12142703967435896,   0.8362281441410753,     0.028123136402839324,
    0.4082879998622286,    0.21070602409494085,    -0.13553301534806486,
    -0.045394769581228206, 0.09107671967686082,    0.05919951436104471,
    0.31931383508477174,   -0.046230547954984075,  -0.23881466217845077,
    1.363039905889018,     0.4501138855179796,     0.48169155920416945,
    -0.36018103604442075,  1.212799602816433,      0.33091545835078007,
    0.2707238767824203,    -0.08004697231294784,   0.33337973917584696,
    0.2756349829840031,    -0.2831681393428951,    -0.07165583723995236,
    1.483877628329015,     -0.15974425842713305,   0.8456007915157225,
    0.5510996325856881,    -0.05277462731485368,   -0.07462344668869098,
    0.628365101281754,     -0.13158427127369735,   -0.21713885996641685,
    -1.9149971497981155,   0.31212582708431597,    -1.0000249586276861,
    0.37672885482205587,   -1.6368376671617675,    -0.8422523669890151,
    0.4315372405746042,    0.22896126110528475,    0.4906183048351392,
    0.04709687526261605,   -0.30597912967554275,   1.767380691612701,
    0.2451175610311845,    0.7725992980737664,     0.3620531901314318,
    -0.022348062756625327, -0.09442379821042712,   0.6883959802791729,
    1.285006286412929,     0.8460174292167276,     0.7134946367211599,
    -0.9879990681928849,   -0.13256004525424317,   -0.26934166459614023,
    0.4697913519668665,    0.09613099974846662,    0.32079300352034956,
    0.7098908924565421,    -0.2654786766771157,    -0.1946990549365537,
    0.15171332303798274,   0.31076919945681225,    0.2290425360264595,
    -0.19311713032504546,  0.40454144101736766,    -0.07562095996430461,
    0.3634974540447306,    -0.3436550073336926,    0.6472588571457253,
    -0.2207738186350864,   -0.43606352163904255,   1.6004662984546476,
    -0.8642568389200462,   -2.1891131644545716,    -0.4145463237290542,
    0.10182532128982126,   -0.06834659888743343,   0.7027327765507224,
    -0.0325088875023647,   -0.023917013707701388,  -0.9062985158584304,
    -0.06931553721574989,  -0.08710276654593928,   -0.06901843402375589,
    -0.5479424871958025,   -0.6478844197854359,    -0.13998592827502274,
    0.12115970353809767,   0.21382099239511507,    -0.8618285214044318,
    0.3735889221095201,    -0.22302010345258094,   -0.018248193862396195,
    -1.0153345353542447,   -0.8012025187181723,    -0.7801020450432814,
    -1.3663213274332926,   -1.7143126885127558,    -0.38920242638521274,
    -0.23431573979116999,  -0.34538754721064907,   0.25056482923807194,
    -1.2396884169795002,   0.27394883675571496,    -0.12857925628720812,
    0.15776945117372135,   0.2330853502628771,     -0.41842257348474643,
    -0.4414702196053532,   0.37815557168152086,    1.2509688060881359,
    0.8791271906651426,    0.47070535348466436,    -0.22259546961741583,
    0.24954356109660022,   0.24421988323727994,    -0.5857926947711437,
    -0.3307719259865199,   -0.41120989617252807,   -0.07712101519557647,
    -0.40219775662602114,  -0.41681811100960364,   -0.13655688605274813,
    0.4384996546276846,    -0.2377177585411304,    -0.9594456264785706,
    -0.3367873594622646,   -0.5061186496117849,    -0.14930871320359548,
    0.12066957215455701,   -0.008391079536525726,  0.29863152439273155,
    0.9961733625921739,    -0.450119536082857,     -0.4577775674420088,
    0.16151584900440843,   -1.1070079237982209,    -1.1098614934846773,
    -0.34601125190437776,  -0.9228211652940246,    0.1663419104986695,
    0.5703023929644666,    -0.9084780448951839,    -0.29666819398195987,
    0.7461900598477413,    0.4493804580526949,     -0.7128819610377953,
    0.030333999778992683,  0.03390447169835659,    -0.9980028191609277,
    0.702107933755606,     0.5068725120249501,     0.013643603946071467,
    -0.44800483696095106,  0.3054980982326895,     -0.36495572273089205,
    0.7291568899472153,    -0.0029037141846351647, 0.40161960682637987,
    0.409115259945224,     0.8627916784739313,     -0.03009688134565343,
    0.6553570102665676,    -0.20847714824941796,   0.4730093807080428,
    -0.5741556197452634,   -0.2629102118638619,    -0.7894853387690317,
    0.1571631270255778,    0.39700136800732844,    0.6839877308236929,
    -0.7386179587970881,   -0.5600040019826084,    0.07035353789274758,
    0.6383641630396868,    0.012092491959977745,   1.4224772362964062,
    -0.2389029336525033,   -0.5365891907037832,    -0.4992160918803102,
    -1.104345552933696,    -0.7467597578096404,    -0.577767942618067,
    -0.1361285196111433,   -0.38084819832691413,   -0.30845547212726143,
    -0.5564766251238256,   -0.926599607796506,     0.1366933355960607,
    -1.169429983480411,    -1.352930144139428,     -0.6411351132947453,
    -0.9459242256113474,   -0.8266205271935054,    -0.8570718757037987,
    -0.40585691056088613,  -0.5580002242894123,    -0.275424932767678,
    -0.08488327367549062,  0.39569915823449,       0.12303977189842186,
    0.3689135451205611,    0.4082925200867568,     1.066084973698148,
    0.17944974723110046,   0.5189325536590643,     0.5022487784157977,
    0.7162643272172444,    -0.42130771370113274,   -0.7771809708863113,
    0.23177117288293583,   -0.206066254993967,     -1.0627540391370698,
    -0.6942007539250807,   -1.1945829253004878,    -0.41017255740564407,
    0.23781051266112777,   0.06750054228286573,    0.07419060309229711,
    0.41349941383978667,   0.00919996464546828,    0.8335342984751261,
    -0.6917800334884104,   0.29543877560504006,    -0.2894952858023662,
    0.3807307201984631,    0.9713871957186695,     -0.015709723472303677,
    0.5077708283666001,    0.610543371924116,      0.016711165527827202,
    -0.7804475350488449,   0.8397258529463546,     -0.48641100666799286,
    -0.3939505421878161,   -0.7966100493193105,    -0.014837370887639334,
    0.9646448240803869,    -0.612155779939968,     -0.8259479828876697,
    -0.34278295976149903,  0.35786024418569307,    -0.301788647041825,
    -0.46607964433079246,  0.4987677854285993,     -0.4128204807268107,
    0.5199524260979904,    0.5162322580901934,     0.15087031206994533,
    0.023056576402390706,  -0.4024345218196444,    0.3853349359699928,
    -0.12766105509810505,  0.24956796472932596,    -0.42199085296959693,
    -0.31132280123320816,  0.6241500120337108,     0.5529064734768113,
    -1.14694065526038,     -0.9534662732016249,    -0.015330040430527372,
    0.0041365416383541374, -0.45980710098066846,   -0.1744518285645778,
    0.6341510828366091,    -0.48542280715174513,   -0.26107309233222104,
    0.052481755047599776,  -1.3188684053382222,    -0.36238551824678994,
    0.15897243046706244,   0.1318932245150074,     0.4288601703086484,
    0.9404115838882438,    0.635858009406241,      0.35410609193690806,
    0.12974984960547103,   0.10018095923159046,    -0.21614427302665112,
    0.11396280120013376,   0.24930236740270859,    -1.753287556542984,
    0.29733323864293343,   -0.3125790767422508,    0.11389911392143766,
    0.3744151454232747,    -0.30623229212279,      0.2833919055825136,
    0.4819833313403274,    -0.0666667747105303,    0.00359210271486377,
    0.5377701455663835,    0.8765182993846303,     -0.37687604442595574,
    0.1351361193860331,    -0.32445766117699504,   -0.19714210780253602,
    -0.13872235669312633,  0.08058377742540611,    0.37451809148946014,
    0.6586461287991255,    0.7712637315357177,     0.6516907246931261,
    0.7958386748131626,    0.4350663055705503,     -0.42189536359430896,
    -0.7397524586055927,   0.19083463011080332,    -0.25745140995219445,
    -0.351546677698086,    0.8434981387059647,     -1.359139265619484,
    -0.9559028887616903,   -0.2876005021711911,    0.18750753766105957,
    0.908432809005392,     -0.20856114755236865,   -0.5578104436809982,
    0.04222745673899136,   -0.19053726037376312,   0.051532810789921384,
    -0.01902286770430449,  0.2165012037586768,     0.4913762982483098,
    0.4146088706523194,    0.25965291159990034,    -0.9012707694874387,
    0.20973029257681808,   -1.016754794988325,     -0.14604158931958286,
    0.3565264643308872,    -0.015559245843887216,  1.0386298344006057,
    0.46957416232218663,   0.054892841760943986,   -0.6339899848245344,
    0.23681559391517723,   -0.5575096813252781,    0.24096005807941745,
    -0.15890684079238854,  0.6362873603324875,     0.14420039065292428,
    0.07177555249767698,   -0.3877566369454204,    0.3554241496215688,
    -0.7351405319035977,   0.6287059686828094,     -0.1238194709632285,
    0.020595935411832248,  -0.22254229255442098,   0.25212932058864485,
    1.2326936629805745,    0.4630556356351826,     -1.0767553430826462,
    0.012398378722157018,  -0.650879395097447,     -0.36560223212892906,
    0.27769322622809534,   -0.05718350355107681,   0.5490819905653155,
    -0.4831965733007561,   0.3316089513940749,     -0.4741972218610091,
    -0.06511335451459532,  -0.19048027035155712,   0.017310046734689277,
    0.5596106846707413,    -0.12174820749491805,   -0.29166684265269105,
    0.37174351129769045,   -0.18152665697344214,   -0.09054752688109499,
    1.2741034663566482,    -0.42377257693906245,   0.42159510291032587,
    -0.42753258314775816,  -0.8063737533931293,    0.4253676364475704,
    0.31920827925481904,   -1.0434562333946265,    0.48019135497283577,
    -0.16585700886315502,  0.3618406134262721,     0.20794590976803848,
    0.4078983108179817,    -0.25046842324008206,   -0.1752882924373091,
    -0.511294906301959,    -0.3512976464269618,    1.174857965438347,
    0.3480866230787401,    -1.6162528113264873,    -0.3199127897185087,
    0.6608971816480931,    -0.22119639934799903,   -0.5667376362566561,
    0.2679386567480335,    -1.4312531928382366,    -0.3131135117074293,
    -0.3615287334540279,   -0.6438966532814454,    -0.055199112845182835,
    -0.12236556365119872,  0.5060065322368039,     0.46573083631719503,
    0.2776656869056031,    -0.49830843725572216,   0.43754911832486076,
    -0.9758700254941591,   -1.8025066071391138,    0.698686532434962,
    -0.014326896767411076, 0.3735277582397394,     -0.470538694348315,
    0.4431497770796857,    0.2006667867980407,     -0.431437395480136,
    -1.01823571938964,     0.015412845415449242,   0.4991610638267437,
    0.06407364476705045,   0.22624267084783814,    0.09912348830665592,
    0.05183562978077268,   -0.18607048436497256,   1.0381060632969343,
    -0.9857554058709349,   0.5613212140708291,     0.24383938213254222,
    -0.8644303236865708,   0.24421149124212704,    0.45074981351104165,
    0.7215645024161323,    -0.47662274031052165,   0.11139917123709121,
    -0.5092715002893164,   -0.3943519850061895,    -0.5913879696077843,
    -0.158634457036877,    -0.013750797617691327,  -0.3624548197000914,
    -0.07307948513359487,  -0.016947523474976148,  -0.010331688584108366,
    -0.09738579340478681,  0.07184980979168266,    -0.11474449031620777,
    0.3949518325723002,    -2.4126994566270845,    0.049550541857261925,
    0.5138995921101318,    0.2252385191835088,     1.0074433030585432,
    0.049741954030471394,  0.3326826999435849,     0.22015613582059462,
    -0.1029857641376765,   -0.30129565235140643,   0.2667376958525694,
    -0.5211728595335172,   -0.3682573566712562,    0.8764578903862222,
    -0.05791657403142118,  0.783267731383352,      0.4362024512348216,
    -0.4576426017418359,   0.0944623629819907,     1.0370549938685534,
    -1.2780929121390114,   0.08774594637589002,    0.46099415789022796,
    -1.3481588289702378,   -0.5446060569652155,    0.3455935686121756,
    -0.261528880993867,    0.4149857408110367,     -0.33009681572564437,
    -0.26227264500898256,  0.9128921930524839,     0.33191141863037116,
    0.5731277863199772,    -0.1793171648771301,    0.5968615375239014,
    -0.06222961972064237,  0.1869519389900718,     -0.5245217427002029,
    -0.04767052912484983,  -0.19120653525460013,   0.08593763225525866,
    0.4686948604457418,    0.9438057225613657,     -0.773966708994035,
    -0.7937126766022927,   0.18188219656280827,    0.9595101185088137,
    -0.541042052574665,    0.7870518716618958,     0.5328416722208249,
    -0.17005531060107817,  0.26397652968743895,    0.11856461659902913,
    -0.3844004428773732,   0.47755754833132535,    -0.5265549848618546,
    0.10605394036728515,   0.13783348067384307,    -0.19291461547150093,
    -0.26068442662387875,  0.5431085068320886,     -0.07635271171797492,
    0.15212346543788108,   1.2054042836208814,     -0.13799762969910426,
    -0.5933422689029332,   0.45645688420938896,    -0.678500469197352,
    0.5096950367221988,    -0.27451025273268254,   0.7463513256229771,
    0.671539691489429,     0.9561574435678203,     -0.37773700451805386,
    1.0382113729227145,    -0.09602174017739049,   0.501672627614682,
    -0.6770399533461786,   -0.7778680857564136,    -0.5094622154238898,
    0.33807342353991515,   -0.22831960955642153,   0.5572440831517599,
    0.8380666278449964,    0.4774505119392095,     0.19569424795695484,
    0.6458983230550682,    -0.25371393722034835,   -0.46582985588304515,
    -0.4464328649570656,   -0.38104196120421063,   -0.5608044780107584,
    0.33900766797510584,   0.8664837525032761,     -0.1007675094400504,
    0.15675151623935957,   0.5173568269406481,     0.305910279223635,
    0.49702784211328566,   0.43543998487249835,    0.13460745775993407,
    -0.31308604140717095,  -1.0760523038258871,    0.8532443421379905,
    -0.08412455941777423,  -0.6533678788446715,    -0.2581613950060224,
    -0.8362142868325891,   0.5325007163428551,     0.4918597968375338,
    1.036939902774819,     0.07794981483839523,    0.35822225568637656,
    0.3666717301227685,    0.29820411279001596,    0.08309570586953434,
    -0.08721730110257477,  0.3612118595368685,     0.5113371038188212,
    -0.514783479849197,    0.030884061621151673,   0.8506045599198824,
    0.11774346454204361,   0.14819541860788277,    -0.4125347454512657,
    -0.17006423730276576,  0.09586967415036197,    0.1212122366271516,
    0.9099424711663253,    0.8719362675883154,     0.25986297210227993,
    0.21691883099237153,   0.5433612066615156,     -0.003437789655525727,
    0.14188536071022223,   -0.18516987471002233,   0.6966691971829962,
    -0.6473768843506371,   0.5727518725062701,     0.06076711653833362,
    -0.2906388745850536,   -0.3884213589461948,    -0.7522137384708198,
    1.1078547525837594,    0.6093608291953821,     0.7623796811049705,
    -0.03355771244018687,  -0.9016537641410838,    0.0779649226451024,
    -0.40222706524259105,  0.3979355178557534,     0.5019107683174713,
    -0.03433277098476106,  -0.24805152108001563,   0.3821202195354703,
    -0.07914073580252297,  0.06496299741037466,    -0.7394027154800242,
    1.0548258658255225,    -0.049047012017060375,  -0.7037935319987072,
    0.505091820050533,     -0.6775041774078023,    -0.10678593994975291,
    1.0345768187470983,    0.5202740640241117,     -0.019655166222086178,
    -0.7837293091612864,   -0.10417375837745786,   0.35926710840885034,
    -0.6923411526632665,   -0.01731132235697553,   0.0585576254538764,
    -0.8861743780890622,   -0.4875883936351338,    -1.1063349501228392,
    -0.2746240457732655,   -0.4692203483116761,    -0.429913989288767,
    1.0254708817935905,    0.6775230264529221,     0.4175273839957746,
    0.9061471098750262,    0.5526594454364017,     0.27664059213379133,
    0.7629132509194038,    0.8784019336334589,     0.6203702190153504,
    -0.2408701488186501,   0.3895760941927221,     -0.49591870947845584,
    -1.3469233364771127,   0.5177588761160954,     -1.1810404540113402,
    -0.16720099738195207,  -1.3183037469274814,    -0.29823711677146747,
    -0.154660469589961,    -1.0648997090675825,    -0.08603043393953956,
    0.5399668357754451,    0.3982152138776522,     -0.2387928878491626,
    -0.2765421952760025,   -0.25132237848067185,   0.6537001212278724,
    0.27976143275154,      0.5866501574103482,     -0.8855212594965498,
    -0.6300469051173072,   -0.16268971653693529,   0.3747443143619691,
    -0.05319283238848918,  -0.9103789479517436,    0.051717259643913036,
    -0.332485841113525,    -0.10272244718985636,   -0.5503621803727003,
    0.09459753320766418,   0.18499544758491238,    0.027192543394125027,
    0.2695867194016484,    1.087116282552341,      -0.35290010842799535,
    0.9174677955352463,    0.8156249490208962,     0.6714105732024226,
    0.5526442678894818,    -0.4431927999539129,    0.3897326431824037,
    0.3109094685499312,    -0.10317150172521748,   0.021422853868788633,
    0.8719593491361418,    -0.7675005196417196,    -0.9660046058199402,
    -0.03313348414879338,  0.8163037129227848,     0.44884173963607094,
    0.6297934573871611,    0.7057267445607202,     0.7321283938606933,
    0.6320766883484429,    0.582763951489052,      0.5857273719819818,
    0.8290754666855193,    -0.2806347330882951,    0.4075903763046631,
    -0.8073299816656796,   0.6154251838921853,     -0.16761276023450364,
    0.5778746571685092,    -0.6673269362265013,    -0.24479097016208481,
    -0.0186064527940158,   -0.16249968424691816,   -0.15476081687176543,
    0.41410483244415425,   -0.8004032596931213,    0.6082263361922106,
    -0.5483303092290625,   -0.045088823757942854,  0.5626874552734464,
    0.4510747498916608,    0.2815991433253346,     0.27351552161066695,
    0.11609780043998845,   -0.26297183313430483,   -0.19187669917248942,
    -0.29562193646755397,  -0.0040318507947982914, -0.2926481665590868,
    0.784281738212291,     0.8204116716122203,     -0.16190419818846805,
    -0.5839232937657124,   0.4717548397133843,     -0.10322427037993319,
    0.21981128924195087,   0.7121142752617767,     0.339616830664065,
    -1.6375593429459194,   0.03928271779152431,    0.8402249993739539,
    0.640871357508956,     -1.2893431372578843,    -0.2531639523219724,
    -0.22271685541212682,  -0.18692341730743667,   0.2974596881963548,
    0.34513513733518314,   0.016648096187311015,   0.9002039411260908,
    0.1509670749803069,    0.5955765685024704,     -0.15019188736718964,
    0.7421290179767202,    -0.10926070471733539,   -0.3328603717432811,
    -0.598911926299108,    0.24870921946536192,    0.5207052940515101,
    0.42985496915053695,   0.5112705414626408,     0.35190231120332716,
    -0.36470424097275406,  0.24269160772066342,    -0.8985785674068828,
    -0.21337455851913545,  -0.6298209056403015,    0.12131088628280541,
    0.1898336466102149,    -0.5727266135061638,    0.031238282646145598,
    -0.029405924974273117, 0.29575625269464856,    -0.6033231861371493,
    -0.17417539453703398,  -0.030662289242287255,  -0.4633472522627348,
    -1.4415998521004487,   -1.414703229573861,     -1.2733267228849228,
    0.5325457169499233,    -0.4079091759580627,    -0.7256026782031936,
    -1.397605745990924,    -0.6187126138472414,    -0.40119265762693007,
    -0.057701378149528214, -1.2079023286703165,    -0.6186706376485784,
    -0.6945163147165584,   0.047058652384298065,   -1.1375788710489059,
    -0.2608138416677711,   -0.2862391114059148,    -0.1870803276609448,
    0.22515082170819303,   0.22639321923727768,    -0.5437811559996679,
    0.8492696458988636,    0.7411030140460596,     0.36419943343402433,
    0.2583167927080695,    0.2325246752493497,     0.40029599037272856,
    0.08512493722737716,   0.1552288120375441,     0.2322035029762043,
    0.28064612032434727,   0.34531644555031715,    0.39691340415605103,
    -0.2579095401312477,   0.6778206437660353,     -0.4375647875000514,
    -0.44687684499575075,  0.3398230565514884,     0.6614472425398317,
    0.0031318434649515127, 0.8422437037677547,     -1.1708381036659883,
    -0.559927454218732,    0.4946395957534625,     1.2658185315092854,
    -0.7116939150834674,   -0.42229029152554537,   0.010774422647949788,
    -0.22169741029505247,  0.2575436346785179,     -1.214561031437873,
    -1.2338215393474257,   0.0597633535934903,     -0.19054756486080193,
    0.19509011793430378,   -0.27461525611728077,   0.8232374788360248,
    -0.8350616945254195,   -0.7496856227795493,    -0.35563472872774554,
    -0.30972433127954385,  -0.4317695030195838,    -0.7550640322140237,
    -0.3554765796038199,   -0.155189485836087,     0.5450303847832344,
    0.8362949117879721,    -0.38448139166045725,   0.1673430917340423,
    -0.1444239727224493,   -0.6129926786517977,    0.2617002216515349,
    0.2577461403164646,    -1.4820791390065498,    -0.3671505798905389,
    -1.4115995433755726,   -0.988714846634699,     0.5457560226509587,
    -0.12010282611378528,  0.13327314044488495,    0.4530082414823125,
    0.5155311274196394,    0.15264622598075983,    0.5764258622751318,
    0.5446478092987131,    0.18940449053367392,    -0.12420136298019616,
    -0.37065054082690535,  0.7680754630146156,     0.023072030535179085,
    0.17701810994336226,   0.5588579460197193,     0.05825707831199708,
    -0.24735926788665932,  -0.0754915474826615,    0.04677590494356282,
    -0.5472936078863831,   1.461958677387081,      0.24636285767813765,
    -0.38772598249998663,  -0.12234721597679636,   -0.8458875997021855,
    0.2271484553811119,    -0.1705994405870848,    0.041068901553952195,
    -0.9080431646827243,   -0.04412904157539168,   0.043999537251255154,
    -0.3885464972649758,   -0.18987673561188032,   -0.19909149921883504,
    0.006709099972811992,  -0.3425528323152366,    0.17726654437021463,
    -0.6571569756833207,   -0.45401697089143983,   -0.7789108597438384,
    0.4836635746264579,    0.3767273152749596,     -0.09769477671164241,
    0.5797565401443932,    0.6372621811052404,     0.8097958068873932,
    -0.23185459807278486,  0.8296690708521665,     -0.06223638239598532,
    0.15010027059665293,   -0.362226007498929,     0.19799365970087088,
    -0.9063681629411735,   -0.8724214101096593,    0.4897839109660149,
    -0.06104755527958734,  -1.16427790021164,      -0.7521960463361668,
    -1.1230295199689184,   -1.1233087019074117,    -0.41380753900612033,
    0.27626538288423486,   0.6187067982857893,     0.8491202851841847,
    0.23669469638864915,   0.4948299890604438,     0.08809793150116953,
    0.19632661962648054,   0.42813277265307814,    0.05635718304893497,
    -0.35986277957512625,  1.0590329472217368,     0.6065311013798861,
    -0.8496545216149292,   -0.22916234794276244,   -0.03636342265131828,
    0.08908537016654883,   -0.2224378360701437,    -0.2661405261173669,
    0.038749045951625996,  -0.010135325705597801,  0.6910961603076976,
    1.0408857942800807,    -0.8580391863918623,    -0.020333659052211274,
    0.0209870862031796,    -0.008719200974831417,  0.07165277581127175,
    0.07868142044037535,   0.482542139400451,      -0.0783032817472478,
    0.29204388527799374,   0.3406736835812691
};
const float linner_layer1_bias[NETWORKS_LINNER1_SIZE] = {
    2.0328e-01,  2.0152e-01,  -1.0325e-01, 5.0100e-01,  -2.6685e-01,
    -1.1462e-01, 3.7187e-01,  5.9041e-01,  -3.8752e-01, -1.2642e-01,
    6.2581e-02,  -4.9769e-01, -3.8052e-01, 5.0055e-01,  -6.9461e-01,
    5.8588e-01,  8.7461e-02,  1.1136e-01,  -1.6738e-01, -1.9445e-01,
    -4.3587e-01, -5.4425e-01, 6.0102e-01,  -1.0060e-01, 6.5055e-01,
    5.7548e-01,  -5.7315e-01, -3.5801e-01, -3.1732e-01, 2.3966e-01,
    3.8924e-04,  -4.9888e-01, 4.7820e-02,  -5.4354e-01, 7.1393e-01,
    -8.2805e-02, 4.7776e-01,  -1.4557e-01, 6.6176e-01,  -2.6903e-01,
    2.8295e-01,  4.4839e-01,  -9.0092e-02, 2.2224e-01,  -4.9842e-01,
    2.2000e-01,  6.2266e-01,  5.3258e-02,  1.5899e-01,  2.5958e-01,
    1.3770e-01,  -4.0305e-01, 3.2315e-01,  1.4999e-01,  3.8500e-01,
    -6.2552e-02, 4.9460e-01,  -1.6007e-01, 1.3765e-01,  5.0103e-01,
    -5.3695e-02, 3.3068e-01,  3.8185e-01,  5.6207e-01
};
const float
    linner_layer2_weight[NETWORKS_LINNER1_SIZE * NETWORKS_LINNER2_SIZE] = {
        -2.6846286279779012,   0.5825917654362386,    0.691406353529651,
        -0.4813607227059867,   -0.2886242766496942,   -0.33302626005920144,
        -0.503705450466225,    0.15186091929443904,   -2.20956351789154,
        0.5091251566587538,    0.5358421294659358,    0.2589227586307499,
        -2.03559623083287,     -0.12211803576100555,  -2.382771433754252,
        -2.0641097160608037,   0.7157480017491489,    0.23955098563126634,
        -1.1571640862088415,   0.3066317965776676,    0.6290802265742907,
        -2.2870266884896497,   -1.08113448944131,     -1.7607167963707218,
        -2.257319088557373,    0.32288147796607286,   -2.5098149937613616,
        0.6278481365229909,    -0.16056676617897056,  -1.4159122989116315,
        -1.2925812135672634,   0.42682990725579645,   0.5029434981021774,
        0.25196574455099807,   0.23279628298714145,   -0.4499763350331512,
        1.012098840457713,     -0.8259155072925083,   -0.598257402857946,
        -1.6330442766177966,   1.035147407368816,     0.32380051074981886,
        0.40992561739879435,   0.18530652803084513,   -0.7226132984538558,
        0.16130926459603273,   -0.12627759867899407,  -0.9257166163898712,
        0.7116215846512205,    0.35737650483520855,   -0.1471097398143035,
        0.1461170905466358,    0.3406264742866366,    -1.2310095153727936,
        0.2486640795223138,    -0.3917461197032335,   -2.140802015654593,
        -1.2132531766109615,   -1.6307000663645421,   0.8737846836240586,
        -0.2535178530557759,   -0.7600241673603271,   0.6972525573878293,
        -0.7823903767533869,   -0.4030605432065675,   -0.34241562051213886,
        -0.31276844410578875,  -0.3388733343014904,   -0.24517328875461164,
        -0.09605103575019726,  -0.13394127481277118,  -0.28817973075621656,
        -0.5298202751871671,   -0.1760534092613661,   -0.478880152101887,
        -0.10642171746203427,  -0.5930960644913877,   -0.4810540493254609,
        -0.6640024966108437,   -0.5719960033202673,   -0.37578622063332545,
        -0.14683241422720228,  -0.3084271402767401,   -0.1097786229294753,
        -0.27173383839694554,  -0.6176510993553852,   -0.4722070127906754,
        -0.4029571790567987,   -0.3550065020585871,   -0.18330758342697814,
        -0.8447152173400162,   -0.36578553376924705,  -0.19093337895381526,
        -0.5576906168891644,   -0.4613546293751815,   -0.13882527716955026,
        -0.4377426604891758,   -0.2119350407881289,   -0.28950380010012505,
        -0.3473398125818193,   -0.3728587002117715,   -0.352751573358227,
        -0.37258169589272266,  -0.38807063617194887,  -0.4940670110652109,
        -0.23682835502318025,  -0.050529557996896665, 0.020832754412448997,
        -0.15763220858362406,  -0.21010319189526566,  -0.20010608093674367,
        -0.4398523273040655,   -0.27312547179777885,  -0.3839034904141609,
        -0.22019504550769545,  -0.12349155225959538,  -0.3257288371892757,
        -0.2958152673118771,   -0.2804421523768745,   -0.5808514476959086,
        -0.37548054800194774,  -0.3244435063313696,   -0.4754630933509306,
        -0.2695465820559614,   -0.3611145752237164,   -0.31169071376474655,
        -0.3627737526116034,   -0.4410326547683625,   -0.3735627274797295,
        -0.3191441484808165,   -0.3811274212425329,   -0.40522165320890263,
        -0.46122078021773605,  -0.2697174725800442,   -0.12776181927783928,
        -0.330127609301125,    -0.5665639139964673,   0.020997957400746104,
        -0.43225629579944846,  -0.2518947359968,      -0.6096479185330054,
        -0.29388099671275564,  -0.6662036316026722,   -0.6602025262304648,
        -0.23609337140931236,  -0.13513328981252695,  -0.38820250213641205,
        -0.10362385310244424,  -0.226800468082083,    -0.713093574606454,
        -0.41409207851796465,  -0.4576327246473615,   -0.47506444245503304,
        -0.3010880628944192,   -0.7695207551298662,   -0.34567125901997253,
        -0.0995425659621146,   -0.5360506356702429,   -0.4582324529120872,
        -0.36029406842401285,  -0.4781842550785406,   -0.1806053268726531,
        -0.2742614342305156,   -0.13621740374870256,  -0.3860716469796621,
        -0.30768591720268484,  -0.29775705428651067,  -0.4013544912903861,
        -0.5370463654431723,   -0.2790773278004333,   -0.1624535873429749,
        -0.1668364291746212,   -0.25658922189510064,  -0.1760324944931768,
        -0.16972797145410654,  -0.39498109937403003,  -0.2047687623118058,
        -0.274990381544208,    -0.24196874590926162,  -0.21104511568789933,
        -0.3457934870731493,   -0.1647162308207761,   -0.2440378436899723,
        -0.5986292186147353,   -0.3817522247725331,   -0.3569437330779534,
        -0.614359546080391,    -0.3247261502728572,   -0.4114938943020764,
        -0.2475874668186024,   -0.32897978622313234,  -0.5145174295366459,
        -0.47017760033494715,  -0.352429895519802,    -0.2677003008754403,
        -0.349565893122774,    -0.22174697729199902,  -0.28841504497715187,
        -0.220310735547018,    -0.2794686052284134,   -0.6599214091959265,
        0.04204868036639425,   -0.3289052991273707,   -0.2282455977169721,
        -0.650414825094103,    -0.37115585447635896,  -0.6365165377534273,
        -0.5201611601196212,   -0.22549291315738212,  -0.10445550954110298,
        -0.45513876768194067,  -0.08154301886561903,  -0.25769564389509,
        -0.6141594013067313,   -0.4557883527899244,   -0.5362339902580244,
        -0.40608576751834713,  -0.17688708099174894,  -0.8073978567946041,
        -0.4159370967535688,   -0.15142137620150917,  -0.5219777199703839,
        -0.5383603072256824,   -0.3227647100066776,   -0.3597836721127992,
        -0.169696633931729,    -0.3661675908239511,   -0.2657121931658639,
        -0.30394108098884587,  -0.4783795923035116,   -0.35445911244749223,
        -0.4394406990180803,   -0.45174089190608613,  -0.24553247208917017,
        -0.10483832688340046,  -0.05356344395712476,  -0.2231367815382711,
        -0.14175150138467332,  -0.354903391112637,    -0.33747782348697164,
        -0.20124753517578445,  -0.33378332727180204,  -0.31560521014133464,
        -0.1471688734389893,   -0.24243538466478826,  -0.2750052170264406,
        -0.1227826422677323,   -0.48237231767414657,  -0.4192582516628154,
        -0.25873014281665885,  -0.5239831400236212,   -0.31451850539050097,
        -0.4910223572734189,   -0.250626334206043,    -0.33177386426355926,
        -0.5238354793619827,   -0.6726006907434015,   -0.3520983361540502,
        -0.4660558362165786,   -0.21780054134729426,  -0.4581033119101674,
        -0.1283591046831268,   -0.07116604338587737,  -0.5641034984112042,
        -0.682517225111289,    -0.36493718109721046,  -0.5194780534253305,
        -0.1906024315600132,   -0.8523675273345181,   -0.34898695232404486,
        -0.7803081209169871,   -0.5328658421376067,   -0.43128553098141525,
        -0.20971387388904955,  -0.7370501174061274,   -0.14108676693507127,
        -0.23168570987592874,  -0.7902662897708751,   -0.3129976858574133,
        -0.41016471898678175,  -0.32036380756964256,  -0.4004217896640189,
        -0.8169328980939853,   -0.4289420181813076,   0.010630142223333233,
        -0.47325481993923285,  -0.5481853553100636,   -0.48610443169085876,
        -0.5894693906560116,   -0.31932270999941914,  -0.28319690904775,
        -0.21394717457089027,  -0.5233700946718162,   -0.4007370018424529,
        -0.33671360913611115,  -0.40608703849006683,  -0.6189594825969263,
        -0.5648772549257317,   -0.3008749401232889,   -0.46845101611141304,
        -0.09579513238473167,  -0.17806030957581784,  -0.360885642885006,
        -0.2366276184018677,   -0.4856021993758775,   -0.5673376787620965,
        -0.23670680735476693,  -0.0312743008273064,   -0.6179913593736047,
        -0.466258650330781,    -0.24842051018504802,  -0.4833282613496981,
        -0.35167869368047905,  -0.5132429427350657,   -0.7299301902450848,
        -0.515493787786229,    -0.8048274756396611,   -0.41050315917240887,
        -0.4485181682580835,   -0.5783602716775651,   -0.5554018238317796,
        -0.2706992439748278,   -0.5716905609386234,   -0.157906781582461,
        -0.42985285303321974,  -0.10809078220292792,  -0.02790582974968326,
        -0.5429021883987153,   -0.8492659812000448,   -0.4134630996199139,
        -0.4933914936926554,   -0.2886448906167769,   -0.713843288556024,
        -0.45289078091649093,  -0.8275312675946938,   -0.5878028576446576,
        -0.6992550463241076,   -0.0136249122602777,   -0.6238536178130313,
        -0.1153255192001756,   -0.13831867193053934,  -0.7828089437065655,
        -0.3514944923930234,   -0.46333220630650285,  -0.3330007050541984,
        -0.4399459574180491,   -0.7606840835232327,   -0.48172822860336284,
        0.05487799971234662,   -0.5992624301934807,   -0.40713783219781846,
        -0.41433240580225644,  -0.5527027736690981,   -0.2393537131880057,
        -0.4077787283142097,   -0.0905897017507325,   -0.4390894612042059,
        -0.5994950046397846,   -0.39563583964341825,  -0.5046870800403062,
        -0.7006995396839171,   -0.6068013214646306,   -0.27144771569424575,
        -0.47039226183692545,  -0.08057125314547847,  -0.23340473999191622,
        -0.18272056995848315,  -0.31320498140282793,  -0.5407805972787051,
        -0.5561123174195562,   -0.2907577531419985,   0.019319157554897517,
        -0.49844363982791134,  -0.3887990021559186,   -0.2177777395731588,
        -0.6460241152289808,   -0.3078933360471706,   -0.5849399804586489,
        -0.6898589844924317,   -0.4720536689602856,   -0.7375071779384166,
        -0.25459942959350246,  -0.4023666343040251,   -0.6725338812359204,
        -0.6259905790898308,   -0.38286934116255844,  -0.5913127673401055,
        -0.2827126152797412,   -0.451222172629364,    -0.03568476621460818,
        0.02414714006256286,   -0.5501526374459786,   -0.6234949831494248,
        -0.38849003800130266,  -0.4754431234751555,   -0.13091370437022778,
        -0.8219712721954129,   -0.32518552862630634,  -0.7355947674586761,
        -0.5603533121883436,   -0.472811069035035,    -0.20447249397861875,
        -0.5787489838326954,   -0.15235962118841562,  -0.2785046621975362,
        -0.7285295598553205,   -0.3176201547313716,   -0.3940461238646296,
        -0.2388013883022443,   -0.48619001656374217,  -0.8609420128252251,
        -0.5301129405332736,   -0.10318198873835654,  -0.558131044127314,
        -0.44877745801029345,  -0.4181067091685605,   -0.6032493384722488,
        -0.3973370069387972,   -0.3265687839285176,   -0.205207462210408,
        -0.5082064592525357,   -0.5866051735256294,   -0.4714213708282984,
        -0.4160400478640379,   -0.5903674560715527,   -0.5178777469102818,
        -0.2709333816867084,   -0.4051059132753021,   -0.2366080379103727,
        -0.15795000981991666,  -0.2543768492905119,   -0.18874307430657045,
        -0.4952335036011468,   -0.48591972813641665,  -0.2734686433802773,
        0.023280628660673455,  -0.46563902499423515,  -0.34835096952902567,
        -0.3021923613387024,   -0.5916216657946021,   -0.34620265536297284,
        -0.4914459033273356,   -0.7470126705721268,   -0.5942363307653774,
        -0.7650188142264509,   -0.26529302806259947,  -0.4272019530454616,
        -0.5330078679895233,   -1.4261897881905927,   0.35573669506883604,
        -1.0415982262152739,   0.2765427141153668,    -0.6312439571122972,
        0.7079127844767064,    0.5580057222260193,    0.23849176591021873,
        -1.1173659747561935,   -0.09891505358531175,  -1.737655719838234,
        0.38773676104602633,   -3.173491441226863,    0.7769797903451889,
        0.04474124776319953,   -1.482459392748996,    -0.08550591305176802,
        0.5204968264833935,    -1.8599081558811636,   0.3843877656570812,
        0.062346248992659795,  -1.1772451363688547,   0.30462998969436894,
        0.8116241536904764,    0.8238275140877881,    0.17406338452012327,
        -1.0530114075087122,   -1.9407288443198822,   0.3720028307809054,
        -1.612932759913129,    -2.0106592144110027,   -2.2011422126827536,
        -0.986203135062625,    -0.3964217132771652,   0.16163877266861537,
        0.47400086252438334,   -1.6188358788313042,   -2.867467357821177,
        -0.7533113394896296,   -0.5872350800932152,   -0.2857538515469376,
        0.23542876221147768,   -0.10797633493452478,  0.09735897797840193,
        0.31868983855799127,   0.5333606590233141,    0.14044709971581693,
        0.6943595443473752,    -0.24681553909910667,  -3.374413066070286,
        -0.17036704886811008,  0.5090999528400546,    -0.6582503814048263,
        0.3170054771311081,    0.1497383653879329,    -2.89730843668207,
        -0.16926114390360114,  -1.3486537663851115,   -4.136310630156711,
        -2.002820474312974,    -1.7605705222677117,   0.385029593990069,
        -1.5330259758064744,   -2.2117226910990126,   -0.3006959301117576,
        -0.5589737069848589,   -0.45751119693854747,  -0.3814938738807517,
        -0.4603593744810117,   -0.22538700729037014,  -0.24609104025744372,
        -0.4983938537929015,   -0.4961865820910634,   -0.5836139051102022,
        -0.36356744744982666,  -0.4542423906376019,   -0.39005558134160756,
        -0.49812316997443,     -0.25979263766907645,  -0.3919356219664236,
        -0.43820238081929785,  -0.5026198025935052,   -0.46541202307273744,
        -0.5975742482917803,   -0.5959100179789759,   -0.46970518332003125,
        -0.38143592538628096,  -0.45752520329142904,  -0.34183936347001004,
        -0.6579907417392528,   -0.5258288231016759,   -0.5157029382832908,
        -0.328020920662443,    -0.40941492158330733,  -0.3673262556202054,
        -0.47703138592632915,  -0.6116600627840162,   -0.45474909177989686,
        -0.41823535149802304,  -0.24172688650931776,  -0.41068971535441096,
        -0.5157759255008967,   -0.5187349301323566,   -0.4481344659325261,
        -0.6453083681305335,   -0.5795281323346997,   -0.3861403589731191,
        -0.444534551851634,    -0.4195057360423751,   -0.5416278915806719,
        -0.44381799648787496,  -0.43087928046011215,  -0.33415580020745794,
        -0.3809019019407707,   -0.30216107453130303,  -0.3489591249484055,
        -0.5659156850380661,   -0.2715466963575253,   -0.5337809126069274,
        -0.691115508925262,    -0.1409601113663521,   -0.37104809137707595,
        -0.44666521734169107,  -0.19427240647495092,  -0.4577837439398036,
        -0.2145245138973903,   -0.22164170724769314,  -0.35832013197422563,
        -0.40164931961287603,  -0.674410431517319,    -0.3670636475293968,
        -0.3195452083896893,   -0.4181806296302892,   -0.16694203125102838,
        -0.27360327017307545,  -0.6280598241814714,   -0.37115417273845125,
        -0.6502870427796172,   -0.5550429175876818,   -0.49438296723080066,
        -0.5155628303159455,   -0.47048656792779187,  -0.2224209552522344,
        -0.3014603525519495,   -0.479752901209285,    -0.41014011533527645,
        -0.6137784752607487,   -0.6230565625312666,   -0.536105591133967,
        -0.48116518605960545,  -0.3948524140927837,   -0.5244185382917144,
        -0.2569813328863382,   -0.5304928148633159,   -0.4061312833295562,
        -0.3094590074283573,   -0.11356640291859539,  -0.3678616954763415,
        -0.33862183491453024,  -0.4176178614676529,   -0.5441122212983928,
        -0.4978823466706409,   -0.48468087440554747,  -0.3653294806762791,
        -0.5009973539041217,   -0.6154129502632759,   -0.435608180519278,
        -0.3582226884045215,   -0.572299888850151,    -0.6023141426583349,
        -0.49263447395451904,  -0.425509578867721,    -0.3489623715652499,
        -0.5439533435031388,   -0.4259389259195402,   -0.49814849935062033,
        -0.5548074046952406,   -0.3800587264876287,   -0.43952613971080734,
        -0.2244066795999209,   -0.4277647527370515,   -0.43980230926787545,
        -0.5570368473971752,   -0.6563834306496581,   -0.27397866984641855,
        -0.270899131966159,    -0.5273479953090019,   -0.36736389077827775,
        -0.5720177501239162,   -0.2994362206355795,   -0.1981432886535652,
        -0.36147080906674517,  -0.2865342047783836,   -0.705392911905262,
        -0.3540223895725431,   -0.4204262778270991,   -0.2928904269358867,
        -0.17000478061220428,  -0.4321137898528227,   -0.6793819811386836,
        -0.24466834351969954,  -0.6231495781754609,   -0.5817333578770713,
        -0.3262407796370778,   -0.5114452462494308,   -0.6587401056314709,
        -0.4080045238802394,   -0.2607663984028147,   -0.5387493749248595,
        -0.5071317679663078,   -0.5490758546076594,   -0.4443131143941353,
        -0.4743807355206073,   -0.42589996885443554,  -0.22555034086705972,
        -0.37592364693852875,  -0.47393442818042336,  -0.47228832988918756,
        -0.5099762907309614,   -0.3976458818866314,   -0.39274445092268123,
        -0.20438584669740933,  -0.17397270933111117,  -0.3620693905760229,
        -0.6592297744751442,   -0.45923887131065216,  -0.43503657284062297,
        -0.3412111496405612,   -0.7332588474252503,   -0.5987321802708377,
        -0.52822806186579,     -0.33931196489613263,  -0.6845406132585002,
        -0.6091988450363315,   -0.26361437989832,     -0.5663982692632985,
        -0.4204684529711416,   -0.5057714697239571,   -0.2674797457998389,
        -0.27695836490554276,  -0.3486433190518865,   -0.36604548411370785,
        -0.229092642798117,    -0.1254582456806512,   -0.4367249763220259,
        -0.4276675533240486,   -0.4271783615384172,   -0.5964869457016082,
        -0.2388792473652439,   -0.3851407348765007,   -0.40216781344571934,
        -0.14192277982987148,  -0.5459796568706969,   -0.31934534886862825,
        -0.0804431609296829,   -0.4744972839147611,   0.5354142685536242,
        -0.664810587494702,    -1.3814516484826447,   -0.5295049527707643,
        0.6681207921334069,    -0.3612632666500838,   -0.16889880634900964,
        -2.1618996981568777,   0.3498307454234943,    -2.440924038958035,
        -0.8801181953116007,   -1.1131014852394339,   -0.8843561679026792,
        -1.3045892277144167,   -0.5387159870523999,   0.794937808488892,
        0.32554236144877563,   -0.13892078326775367,  -1.6108322990847688,
        -2.844478185167796,    -1.7338846204148377,   -1.2342396637805868,
        0.41158521761734645,   -0.7078439318229138,   0.5507371160090793,
        0.22922790905541932,   0.22494009998116052,   -0.23000516083551437,
        -0.018222163861631932, 0.7047078271595891,    0.6957219897556626,
        -1.4032333593641213,   -2.8665247856079907,   -0.4547629095610911,
        -0.5137089465255494,   0.3206298963938745,    -2.7851450389378645,
        -2.4070153066352256,   -1.8187334566662035,   -0.40770489554299044,
        -2.4011277473777826,   0.625535140238101,     -1.1538471664723378,
        -1.756362606536358,    -0.2927805494723221,   -0.7208157674825849,
        0.5412626291743847,    -0.19923605855066376,  0.8505504283847466,
        1.1930946294018818,    0.794279709309112,     0.3977323203661788,
        0.03897788679524728,   -1.5697924802407117,   -1.4599792992418215,
        -1.4878301687880284,   0.7709017306685063,    -0.9776615726157473,
        0.3494718063918615,    0.7599289914119457,    0.08392824421750573,
        0.6291036712439236,    1.0661282360740727,    0.48560752889381614,
        0.008498046792163358,  -0.02734096727380157,  -0.11701190026698013,
        -0.06592398654203278,  -0.13385232028973706,  -0.14691466793666955,
        0.0224924961557833,    -0.11902408926481098,  -0.02673989722915191,
        -0.05881470103337581,  -0.08773719059026294,  -0.14214132750095607,
        -0.04571992533607098,  0.014479065011771014,  0.0832126316906865,
        0.08345461833027622,   0.10487885884661646,   -0.2861503003395437,
        -0.04948968330687822,  -0.10064314016826605,  -0.20815330965585682,
        0.015360635149222354,  -0.11974747168137297,  0.03777650199227586,
        0.07418538437014609,   -0.2279334252043284,   0.07826329815720726,
        0.08259240433089109,   -0.16471023648720465,  0.1038783238466477,
        -0.1153503635781383,   -0.15414007245044892,  -0.059944031776105355,
        -0.009012301711001945, -0.03253448749685155,  -0.0882385284762435,
        -0.2959105191325642,   -0.032727453907461325, 0.09531183081989024,
        0.07770911900474722,   -0.03527363181468852,  -0.1329030707930384,
        -0.04793663920762317,  -0.1484027378171828,   -0.042005959401385226,
        -0.29617711573973615,  -0.15719614447039215,  -0.09423312825595452,
        -0.027613394543075365, -0.18742390815742352,  -0.07865466032209462,
        -0.10929042669940602,  -0.07580397083773133,  -0.03253048854512225,
        -0.05584163741558829,  -0.00827854871749878,  -0.0015959850627352648,
        0.07330427198273515,   -0.14051374780144055,  -0.13050325348268066,
        0.13858873558789536,   -0.046353278937645494, -0.08029070277372742,
        0.004138819353099986,  0.45891327084774797,   0.3211990545751558,
        0.49482154048402593,   0.6605901880437725,    -0.030283521802591355,
        -0.11991685351231696,  -0.029859261773654753, -0.31211747056406836,
        0.0664433446538797,    0.5625903864616438,    0.6787559394478907,
        0.1432618026646712,    0.5000626110592988,    0.5685759367774784,
        0.33517656562559767,   0.5243496262452865,    -0.6626283497828642,
        -1.0323199976633883,   0.9496886295569661,    0.3734086423378787,
        0.5848378417294208,    0.4870887294995975,    0.03996141047339686,
        0.4112272081393125,    -0.025245541350260307, -0.8002058073226322,
        0.25430426069273876,   0.6364398945240827,    0.05229121585738126,
        0.4813038573201397,    -0.127187932083498,    0.3981269038693075,
        0.7057139096831812,    0.3520961417240491,    0.12507907561745477,
        -0.23553866592588574,  0.3520777105381998,    0.2937506105731492,
        1.3445011358090544,    0.7038510553801466,    0.7928078984089456,
        -1.156006411164334,    -0.03402544363500065,  -0.6063464129340123,
        0.4169044636489926,    -0.4893694382956842,   -0.3202207490617663,
        0.6894510602258329,    -0.12798964279150798,  -0.6703052706490938,
        0.07791763557347962,   -0.6009854042156481,   0.015302285290894875,
        1.0851698414666635,    0.056409042966215364,  0.06423433725431427,
        0.3192472653257485,    1.1897351919330121,    0.06697244643785556,
        0.2384486802468871,    0.4626945827339461,    0.5373658370868213,
        0.35544208462513993,   0.3829621747697533,    0.01327259464960448,
        -0.2461888974426825,   -0.1842738813503881,   -0.09887346173438857,
        -0.015920810668029407, -0.0721416493654091,   -0.23051935595641482,
        -0.09701719183394102,  -0.0332305717819214,   -0.23638173935448722,
        0.01630578212208026,   -0.04677135551479334,  0.11128067753101857,
        0.11074656473174241,   -0.002772762777734218, 0.0429177404793628,
        0.009567638698526523,  -0.2349911121335779,   -0.048574532464725546,
        -0.05394603962158547,  -0.13151518665365738,  -0.10844607096137907,
        0.0248408567375837,    -0.0762038247027858,   -0.009419749821484405,
        -0.2039220005127032,   0.011249424311684662,  0.08297636240755316,
        -0.1637738723131716,   -0.05088424414176167,  0.011162645791426843,
        0.02664177921177892,   -0.05577167737355344,  0.012607558209487677,
        -0.15722132113479267,  -0.02525258153003814,  -0.11357478169171771,
        -0.07286963497898125,  0.035991370600400086,  0.04182003826707658,
        0.006110297256130592,  -0.1828631728786267,   -0.12398487460960557,
        -0.09720380036350497,  -0.05834295713921742,  -0.2777986947287471,
        -0.23329627823814936,  0.01983643698305878,   -0.19276389209910474,
        -0.08890089174091455,  -0.03922027757250075,  -0.10482352082723033,
        0.11112282034101863,   -0.009818389246471777, -0.09796104033806313,
        -0.008214601109145075, 0.05652191843424618,   0.0946754930512421,
        0.09102175321522969,   -0.13166688692673573,  -0.026487946602236506,
        -0.17004802593076998,  -0.14509551398173517,  0.08303858283767333,
        0.9981541704396525,    -0.9080801984276156,   -0.023424176523123372,
        0.39357602821388415,   0.3408783675267324,    0.04149232274701973,
        0.19768069321032178,   0.48502374919712926,   -0.40786122474840103,
        -0.07588784677741697,  0.739414769789117,     -0.18998387627885607,
        0.6401849725795199,    0.09636597185614831,   0.15587840303182468,
        1.1156766252886379,    -0.22761908462625058,  0.18210994228494037,
        1.6350380174418406,    -0.6344523384271256,   -1.106558016248008,
        0.7239656427191301,    0.42137043555783893,   0.5084856478773364,
        0.41011044190648527,   0.18932141756547663,   -0.319163218309642,
        -0.2356977087825069,   -0.792631318229734,    0.5750167170703759,
        0.8028024266579755,    0.11474743690909993,   -0.11518786706982158,
        0.2552796315753577,    -0.010005377302444027, -0.19427691263008803,
        -0.20814471703414997,  0.7058542947901865,    0.643882820632642,
        1.1080903644465228,    0.28459582073600276,   0.22042038275094153,
        0.03315827776844334,   0.24258556329363995,   0.41478293444792536,
        0.053170963988318845,  0.184518602432829,     0.780227025864527,
        -0.6797089348257077,   -0.593567107742964,    0.1703585604239643,
        -0.8633803059341953,   0.18489967285617812,   0.4691614805059209,
        0.14537183850927443,   0.2139688082006066,    0.5775590585872343,
        1.2860630730490845,    0.7376359410251774,    -0.5438327633558643,
        0.495496620336174,     -0.8538981922116969,   -0.5623953945062098,
        0.8984529711409972,    -0.4952902171021609,   -0.7898611511825975,
        -0.2817884659157952,   -0.4380081366325053,   -0.3227541170564834,
        -0.48772640949915774,  -0.47937450267387166,  -0.5182804892884425,
        -0.3132485554355819,   -0.7545832815244261,   -0.406598134993537,
        -0.48760324480329936,  -0.39911008872606535,  -0.4581373265795711,
        -0.2323240057024944,   -0.6389655842710678,   -0.5297792237142664,
        -0.6085404811637501,   -0.5056863207313657,   -0.7019401492119121,
        -0.6107547736208283,   -0.15735813433569007,  -0.41710359860481033,
        -0.409869183872401,    -0.5419455126722078,   -0.4774279787669544,
        -0.38333879360335504,  -0.6458955796510691,   -0.22481144088878255,
        -0.5013820816400669,   -0.3478027178175263,   -0.432087049934647,
        -0.6020810320570462,   -0.35462343951729225,  -0.5564255725033255,
        -0.3481994386188893,   -0.4126681959934442,   -0.4127020136142354,
        -0.48048332778027836,  -0.5126214839274504,   -0.9127945047668281,
        -0.5620756113915388,   -0.48717526110620846,  -0.3445282345719233,
        -0.40652958462764643,  -0.6440283336755045,   -0.19147925020555168,
        -0.6166512520445016,   -0.6269528752340369,   -0.3520174189970843,
        -0.4604506385432196,   -0.24523449404954423,  -0.5860773957109463,
        -0.43664244408004704,  -0.582377962284718,    -0.5462330686342577,
        -0.3648197437811344,   -0.5090502530356817,   -0.4584739829531505,
        -0.566592806069216,    -0.69728202386911,     -0.3728881101842342,
        -0.46074368362738083,  -0.5887594106083713,   -0.59736336525911,
        -0.6989386189771633,   -0.18918099853077852,  -0.3968346153552223,
        -0.30916625597980396,  -0.45285843763105965,  -0.4714336458491022,
        -0.5470813503975098,   -0.3202618968900712,   -0.5113057384920999,
        -0.5678140041276252,   -0.6486265006908565,   -0.4760680787860482,
        -0.38798502868136425,  -0.3094392906149558,   -0.5599445240399816,
        -0.6821855793406307,   -0.6260589041324042,   -0.4351788854050249,
        -0.5401213318009936,   -0.6878117175508695,   -0.28767985736476853,
        -0.3873110474779168,   -0.436935123944221,    -0.6139611769679065,
        -0.5887090523280506,   -0.30207267794548254,  -0.44585222998737745,
        -0.3608355453771949,   -0.554348904326159,    -0.31758178021493916,
        -0.42546545391840856,  -0.654054116043554,    -0.3536421922875051,
        -0.5454832885262585,   -0.4392019635227755,   -0.495764276548001,
        -0.2939029899749866,   -0.34179676266360215,  -0.5285860591067605,
        -0.9160336498958921,   -0.5678221994447765,   -0.33732411387179817,
        -0.517441925539027,    -0.3829559280920932,   -0.6779763092520515,
        -0.4709407704617608,   -0.31973564114417624,  -0.60175581344256,
        -0.4293478462931765,   -0.392349530945251,    -0.3706454488645062,
        -0.7275024879701415,   -0.4773471833420066,   -0.4201399777773345,
        -0.5668818697932294,   -0.40136626714163065,  -0.46931257325529285,
        -0.4074130724303039,   -0.46608973052071656,  -0.6303442771030981,
        -0.25472544643169687,  -0.5091884230008117,   -0.6615735505053872,
        -0.43171812248082175,  -0.7347953461581895,   -0.38853992182811187,
        -0.3582642838632357,   -0.2870795621360505,   -0.3792289518901206,
        -0.5549681515330581,   -0.5194353019763503,   -0.39186538655934516,
        -0.6649735965953146,   -0.46245388610294497,  -0.4551435167511726,
        -0.45944303809799286,  -0.510552885732745,    -0.18966648066756173,
        -0.5151776612587141,   -0.6300921772145445,   -0.5176984353967145,
        -0.5346500909392446,   -0.554220239381646,    -0.5692179603612558,
        -0.24193244809168005,  -0.3748475511882515,   -0.49626604198940444,
        -0.6133058917973492,   -0.5487408125718038,   -0.37606788563731264,
        -0.6894593900874422,   -0.3576384768137278,   -0.5767881493520236,
        -0.3547894618344532,   -0.4337229787075265,   -0.6685805820910102,
        -0.3817503445892087,   -0.4720581566942252,   -0.516791771982533,
        -0.4093147956424173,   -0.3330138762649758,   -0.3317752420838977,
        -0.5022782668812283,   -0.8033160688046949,   -0.5578870663467546,
        -0.3845891893896693,   -0.5190281917424032,   -0.6406283343251441,
        -0.733277634623495,    -0.3874961494321948,   -0.5431743152897628,
        -0.5905400011907086,   -0.5603648848688768,   -0.3227603603956232,
        -0.3850555251043087,   -0.6700550732599087,   -0.3651826685399217,
        -0.595371941357728,    -0.5656347609318937,   -0.41854526196809005,
        -0.435860068741076,    -0.27098743783098966,  -0.39053898537556697,
        -0.7785202395737495,   -0.3053865788036902,   -0.4428560659489347,
        -0.6942721003948904,   -3.2370675440922376,   -2.637252676043474,
        0.4216583424995135,    -2.0425452204129666,   -1.215715332396737,
        -0.6641547870727443,   -1.844912587496503,    -1.6082759809567202,
        0.6781613571312429,    -2.0999104754162414,   -1.4963762195347277,
        -1.274251317468089,    0.6616742378630589,    -1.8741648576130734,
        0.6352325400879921,    -2.3368124677114634,   -2.4388216987674665,
        -0.8472579726462203,   -0.7912520750631025,   -0.8262235140656832,
        -2.597756180704351,    0.5942907292273512,    -1.9687793657834947,
        0.45405982602636125,   -2.2158410484925493,   -2.5768998679128456,
        0.8199583280883405,    -2.211850389890405,    -0.6906764057501183,
        -1.6089794857942719,   0.21829627950272404,   -0.1268113830642883,
        -2.278422685474416,    -0.6730652185762546,   -2.116355254545968,
        -1.2047079115610853,   0.4241955164110128,    0.4643453976353721,
        -2.3966116957611345,   -0.8274457857044679,   -2.5485586326197405,
        -2.5119875717180586,   -1.6395265890223363,   -2.054994071279182,
        -0.98444080429366,     -1.2933759048467504,   -1.379114326935488,
        -2.159459955444639,    -2.323979273543543,    0.02844520021544527,
        -1.8309568425938774,   -0.5387165194064935,   -1.8113165126340385,
        -1.6721028357250445,   -1.5313740762390466,   0.7733974709900865,
        -1.3849277237340991,   -1.3923447564368088,   0.667314749927859,
        -2.048041966357226,    -3.425012129796248,    -1.9388376627663626,
        -2.2573993543107047,   -2.76480428755701
    };
const float linner_layer2_bias[NETWORKS_LINNER2_SIZE] = {
    -0.2212, -0.7254, -0.5962, -0.7691, -0.8325, -0.7905, -0.8129,
    0.1621,  -0.7333, -0.6498, -0.5797, 0.4608,  -0.1686, -0.0107,
    -0.1093, -0.0129, -0.8300, -0.8633, -0.8028, -0.3941
};

const float batch_normal_weight[NETWORKS_BATCHNORMAL1D_SIZE] = {
    1.4630, 1.1395, 1.2177, 1.9351, 1.4001, 1.4318, 1.2889,
    1.8409, 1.5705, 1.5407, 2.0648, 1.7423, 2.1437, 1.9154,
    1.9112, 1.4830, 1.1438, 1.4302, 1.4221, 1.2019
};
const float batch_normal_bias[NETWORKS_BATCHNORMAL1D_SIZE] = {
    0.2063, 0.1459, 0.2894, -0.0045, -0.0579, 0.0668, 0.1485,
    0.1662, 0.3088, 0.2619, -0.0682, 0.2127,  0.1886, 0.2418,
    0.0566, 0.3095, 0.4255, 0.3177,  0.3060,  0.3401
};
const float batch_normal_running_mean[NETWORKS_BATCHNORMAL1D_SIZE] = {
    2.0781e+05, 7.9986e+05, 5.7581e+05, 1.8422e+06, 4.0829e+05,
    7.8570e+05, 5.5670e+05, 2.6223e+00, 2.6036e+00, 2.7710e+00,
    1.5957e+06, 1.8603e+06, 1.9816e+06, 1.0489e+06, 1.2904e+06,
    8.3088e+05, 8.2307e+05, 2.8332e+00, 2.7074e+00, 2.7247e+00
};
const float batch_normal_running_var[NETWORKS_BATCHNORMAL1D_SIZE] = {
    9.2564e+10, 1.9401e+12, 1.0174e+12, 1.4391e+13, 4.4327e+11,
    2.0081e+12, 8.4632e+11, 4.3679e+00, 4.2292e+00, 4.9381e+00,
    1.7119e+12, 1.2815e+13, 1.5395e+13, 1.9554e+12, 5.6540e+12,
    1.9520e+12, 1.7465e+12, 5.7742e+00, 5.3014e+00, 5.1225e+00
};

const char *action_list[11] = {
    "jumping_squat", "jumping_jack", "jumping_lunge", "other", "sit",
};

static int linear_calculation(NetwoksLayer *layer, LayerData *input_data,
                              LayerData *output_data)
{
    uint16_t i = 0, j = 0;
    float tmp_sum = 0.0f;

    if (!layer || !input_data || !output_data) {
        return NET_ERR_GENERIC;
    }

    if (input_data->size != layer->row_num ||
        output_data->size != layer->column_num) {
        return NET_ERR_GENERIC;
    }

    for (i = 0; i < output_data->size; i++) {
        tmp_sum = 0.0f;
        for (j = 0; j < layer->row_num; j++) {
            tmp_sum +=
                input_data->data[j] * layer->weight[i * layer->row_num + j];
        }
        tmp_sum += layer->bias[i];
        output_data->data[i] = tmp_sum;
    }

    return NET_NORMAL;
}

static int relu(LayerData *input_data)
{
    uint16_t i = 0;
    if (!input_data) {
        return NET_ERR_GENERIC;
    }
    for (i = 0; i < input_data->size; i++) {
        if (input_data->data[i] < 0.0f) {
            input_data->data[i] = 0.0f;
        }
    }
    return NET_NORMAL;
}

static int batch_normal1d(LayerData *input_data)
{
    uint16_t i = 0;
    for (i = 0; i < input_data->size; ++i) {
        input_data->data[i] =
            ((input_data->data[i] - batch_normal_running_mean[i]) /
             sqrt(batch_normal_running_var[i] + EPS)) *
                batch_normal_weight[i] +
            batch_normal_bias[i];
    }
    return NET_NORMAL;
}

static int max_pool(LayerData *input_data, LayerData *output_data)
{
    uint16_t pool_size   = NETWORKS_POOL_SIZE;
    uint16_t output_size = input_data->size / pool_size;
    uint16_t i = 0, j = 0;

    for (i = 0; i < output_size; i++) {
        float max = input_data->data[i * pool_size];
        for (j = 1; j < pool_size; j++) {
            float value = input_data->data[i * pool_size + j];
            max         = (value > max) ? value : max;
        }
        output_data->data[i] = max;
    }
    return NET_NORMAL;
}

int networks_init(void)
{
    memset(&bp_networks, 0, sizeof(BpNetworks));

    bp_networks.linner_layer1.row_num    = NETWORKS_INPUT_SIZE;
    bp_networks.linner_layer1.column_num = NETWORKS_LINNER1_SIZE;
    bp_networks.linner_layer1.weight     = linner_layer1_weight;
    bp_networks.linner_layer1.bias       = linner_layer1_bias;

    bp_networks.linner_layer2.row_num    = NETWORKS_LINNER1_SIZE;
    bp_networks.linner_layer2.column_num = NETWORKS_LINNER2_SIZE;
    bp_networks.linner_layer2.weight     = linner_layer2_weight;
    bp_networks.linner_layer2.bias       = linner_layer2_bias;

    return NET_NORMAL;
}

static ClassResult result_classification(LayerData *hidden_layer_output)
{
    uint16_t i = 0, j = 0;
    for (i = 0; i < hidden_layer_output->size; i++) {
        if (hidden_layer_output->data[i] > hidden_layer_output->data[j]) {
            j = i;
        }
    }
    return (ClassResult)j;
}

void dump_layer(LayerData *input_data)
{
    for (int i = 0; i < input_data->size; ++i) {
        printf("%f,", input_data->data[i]);
    }
    printf("\n\n");
}

void output_csv(LayerData *input_data){
    FILE* file = fopen("output.csv", "a");  // "a" 
    if (file == NULL) {
        printf("\n");
        return;
    }

    // CSV
    for (int i = 0; i < input_data->size; i++) {
        if (i > 0) {
            fprintf(file, ",");  // 
        }
        fprintf(file, "%f", input_data->data[i]);
    }
    fprintf(file, "\n");  // 

    fclose(file);  // 
}

int foward_process(LayerData *input_data, int *class)
{
    float linner_layer1_output_data[NETWORKS_LINNER1_SIZE] = { 0.0f };
    float linner_layer2_output_data[NETWORKS_LINNER2_SIZE] = { 0.0f };
    LayerData linner_layer1_output;
    LayerData linner_layer2_output;

    linner_layer1_output.size = NETWORKS_LINNER1_SIZE;
    linner_layer1_output.data = linner_layer1_output_data;

    linner_layer2_output.size = NETWORKS_LINNER2_SIZE;
    linner_layer2_output.data = linner_layer2_output_data;

    float hidden_layer_output_data[NETWORKS_POOL_SIZE] = { 0.0f };

    LayerData hidden_layer_output;
    hidden_layer_output.size = NETWORKS_CLASS_NUM;
    hidden_layer_output.data = hidden_layer_output_data;

    int ret;
    ret = batch_normal1d(input_data);
    if (ret != NET_NORMAL) {
        printf("batch_normal1d wrong!\n");
        return ret;
    }
    // dump_layer(input_data);
    // output_csv(input_data);

    ret = linear_calculation(&bp_networks.linner_layer1, input_data,
                             &linner_layer1_output);
    if (ret != NET_NORMAL) {
        printf("linnear1 wrong!\n");
        return ret;
    }
    ret = relu(&linner_layer1_output);

    if (ret != NET_NORMAL) {
        printf("relu wrong!\n");
        return ret;
    }
    // dump_layer(&linner_layer1_output);

    ret = linear_calculation(&bp_networks.linner_layer2, &linner_layer1_output,
                             &linner_layer2_output);

    if (ret != NET_NORMAL) {
        printf("linnear2 wrong!\n");
        return ret;
    }
    // dump_layer(&linner_layer2_output);

    ret = max_pool(&linner_layer2_output, &hidden_layer_output);

    if (ret != NET_NORMAL) {
        printf("max_pool wrong!\n");
        return ret;
    }
    // dump_layer(&hidden_layer_output);
    // output_csv(&hidden_layer_output);

    *class = result_classification(&hidden_layer_output);
    // printf("action:%s\n", action_list[*class]);
    // printf(" %f %f %f %f %f\n", hidden_layer_output.data[0],
    //        hidden_layer_output.data[1], hidden_layer_output.data[2],
    //        hidden_layer_output.data[3], hidden_layer_output.data[4]);
    return ret;
}